<?xml version="1.0"?>
<opencv_storage>
<stage1>
  <maxWeakCount>10</maxWeakCount>
  <stageThreshold>-1.4713579416275024e+00</stageThreshold>
  <weakClassifiers>
    <_>
      <internalNodes>
        0 -1 1583096 3.3198937773704529e-02</internalNodes>
      <leafValues>
        -7.7258884906768799e-01 -1.9248826801776886e-01</leafValues></_>
    <_>
      <internalNodes>
        0 -1 1181099 1.8760446459054947e-02</internalNodes>
      <leafValues>
        -3.3534806966781616e-01 4.0121370553970337e-01</leafValues></_>
    <_>
      <internalNodes>
        0 -1 2800400 -6.5838196314871311e-03</internalNodes>
      <leafValues>
        4.5323970913887024e-01 -1.9362989068031311e-01</leafValues></_>
    <_>
      <internalNodes>
        0 -1 447212 -6.9894874468445778e-03</internalNodes>
      <leafValues>
        4.5704486966133118e-01 -2.1227435767650604e-01</leafValues></_>
    <_>
      <internalNodes>
        0 -1 3013378 1.7603029846213758e-04</internalNodes>
      <leafValues>
        1.3899321854114532e-01 -6.7433178424835205e-01</leafValues></_>
    <_>
      <internalNodes>
        0 -1 2580730 -2.0205073815304786e-04</internalNodes>
      <leafValues>
        3.6462616920471191e-01 -2.3308506608009338e-01</leafValues></_>
    <_>
      <internalNodes>
        0 -1 1403141 -1.1147715151309967e-02</internalNodes>
      <leafValues>
        5.8812999725341797e-01 -1.6678953170776367e-01</leafValues></_>
    <_>
      <internalNodes>
        0 -1 1230176 1.0590505786240101e-02</internalNodes>
      <leafValues>
        -1.9632600247859955e-01 5.0520825386047363e-01</leafValues></_>
    <_>
      <internalNodes>
        0 -1 2265052 1.0635229409672320e-04</internalNodes>
      <leafValues>
        1.2614335119724274e-01 -7.0613622665405273e-01</leafValues></_>
    <_>
      <internalNodes>
        0 -1 2750802 1.3124180026352406e-02</internalNodes>
      <leafValues>
        -2.2416400909423828e-01 3.8950645923614502e-01</leafValues></_></weakClassifiers></stage1>
</opencv_storage>
